1.720664741778233364e-01 -6.626038297328382121e-02 6.729069184415227556e-02 6.233743589798638324e-02 -3.863795420163683436e-02 -4.594319891044037346e-02 -3.238084393957341156e-02 -4.040175751442032920e-02 -4.152012327404921987e-02 6.385406283419718665e-02 1.113500818357123640e-01 8.303181018267014046e-02 -6.607773998999173781e-02 -4.903776197143657617e-02 -1.599548519111808342e-01 -1.331910629672613481e-03 6.079636924800287806e-02 -8.662698767413672118e-02 -2.259621459438965196e-02 1.338091640119375147e-01 6.871865757819148324e-02 -1.137775578913065300e-02 1.287384843199889106e-01 -2.617447641852916045e-03 9.798932640762449131e-02 -9.472110183971324884e-03 -9.382509224909353629e-02 -1.766938054043467460e-02 8.084406446395113466e-02 5.060702839101310913e-02 -9.654582332629355057e-02 3.740251301936300260e-02 -8.030450276860676140e-02 4.601308627664813661e-02 9.170607893361820695e-02 5.405793634804515260e-03 -8.131321296562560308e-02 6.873907476427209597e-03 5.210719255609994049e-02 -1.529322583216074505e-01 7.271571125892400955e-02 5.565485797102857207e-02 -3.886153639144897948e-02 3.305491033892942604e-02 -9.670288910442656483e-02 9.971143382858506377e-02 -6.533795093866127772e-03 -8.858987571879087947e-03 1.312624335503769502e-01 -4.968301792042425363e-02 -6.739082559495472580e-02 1.342976330591072742e-01 -3.561439120105395345e-02 -3.412235463620158504e-02 -1.578123228373873657e-02 -9.756001219697302274e-03 -1.780196356726239104e-01 2.858495507535319460e-02 1.723862892028826255e-01 -1.053233984705490567e-01 -8.579934103615547564e-03 9.937115262061076149e-02 7.619154811176698239e-02 1.015454041663172435e-01 -5.874400110041681777e-02 3.545951627027754682e-02 -6.310014845319414367e-02 6.564494495467780577e-02 1.673967132344253150e-01 -5.394139133871559549e-02 -1.228908736563479320e-01 -9.507545249676525867e-02 -1.340055723635396601e-01 -1.251036360796696223e-01 1.228200498565862608e-01 9.451444629293463684e-02 -1.026308971374036288e-01 1.939561596597740578e-01 1.355442439728430648e-01 -6.333197916351271384e-02 8.116693569812973019e-02 4.709868255757055505e-02 -3.003968213606665431e-03 -5.611142716490517129e-02 -1.660516321686336116e-01 -6.346692334906883781e-02 -7.078183639603498334e-02 6.870240886450250384e-02 2.494806217190224593e-02 1.040638352971051256e-01 1.454540923565922628e-01 -1.026002759380266333e-01 -8.476987981715632461e-03 -2.332043384918720385e-03 -1.568823544252713753e-01 -2.003391044902784815e-02 4.614740116838717682e-02 5.603169437938575886e-02 -8.438368043512789463e-02 1.263262457321129573e-01 -1.177221005311645807e-01 3.165185642690417078e-02 7.316413298912187446e-02 2.399617882226421153e-02 -5.205550231582105336e-02 -1.527954014596542565e-01 1.053455264507688477e-01 7.065639602165944833e-02 -8.171840749816244864e-02 7.469853934969205612e-03 7.644979903181079936e-03 -4.284568941827125721e-02 -1.486044287840998790e-01 1.603997341025148460e-01 -2.133902082284533028e-02 -8.026741571254579488e-02 2.767994192540663978e-02 6.222316799115001906e-02 2.874473164404644024e-02 -1.791130086691720136e-01 4.213260347848681031e-02 -1.851294306648305563e-02 8.066954521368205344e-02 1.365763550159704853e-01 1.375142887870666186e-01 2.413354700507573669e-02 1.248102476888964252e-01 8.546015373410877081e-02
